5.97060844e-02  1.33858919e-01 -4.36151307e-03 -8.35477561e-02 -1.56351402e-01  1.32741258e-01  8.01339522e-02 -1.22261629e-01 -4.40201834e-02 -1.12657629e-01 -1.32705346e-01  2.78791063e-03
 -2.45695785e-02 -1.07224755e-01 -1.10802799e-01 -2.42025908e-02 -1.97360337e-01 -4.55598421e-02  5.42204492e-02  9.01069958e-03  1.39485262e-02 -3.92434411e-02 -2.30579916e-02  1.11939095e-01
 -2.31675934e-02 -1.19455002e-01 -1.38322532e-01  2.46252399e-02 -8.36466551e-02 -2.00682327e-01 -5.06104939e-02 -4.96730804e-02 -1.54455507e-03  1.62618030e-02 -1.01268224e-01  1.28528118e-01
 -2.81573143e-02 -1.33198798e-01  3.23747732e-02  1.58558831e-01 -5.67068830e-02 -3.25442366e-02 -5.18043600e-02 -1.83409192e-02 -9.49205905e-02 -8.17232113e-03 -2.02385008e-01 -4.63355519e-02
 -8.01732242e-02 -1.07990019e-02 -9.90462396e-03 -3.20166722e-02  9.50771272e-02 -2.69893873e-02  2.43576169e-02 -1.07300736e-01 -1.92403402e-02 -5.14597371e-02 -2.32932508e-01  2.54813731e-02
  8.83542374e-02 -2.06720214e-02 -4.42094132e-02 -2.19875555e-02 -6.54047728e-02  5.07314503e-02 -2.00596750e-02  1.06418155e-01 -1.20668344e-01 -6.18874766e-02  7.89729655e-02 -2.11116150e-02
  7.54396915e-02  6.30813092e-03  7.20878020e-02 -1.64037913e-01  4.72463034e-02 -2.85569634e-02 -1.22659631e-01 -3.57327573e-02 -9.71744657e-02 -2.25651562e-01 -1.07902009e-02 -7.54926354e-02
  1.76498364e-03 -9.13829803e-02  9.09053534e-02  3.33109917e-03 -5.78818321e-02  5.11849523e-02  1.04653556e-02  2.07364000e-02 -1.39371634e-01 -8.02088976e-02  5.67811541e-02 -1.85146526e-01
 -1.39441326e-01  2.63675243e-01 -6.46090582e-02 -6.23978153e-02  2.88154613e-02  4.40236144e-02 -7.98870847e-02 -1.52465403e-01 -4.95001115e-02 -6.41944706e-02 -1.51236579e-01 -2.99850795e-02
  5.43489978e-02 -1.88345334e-03 -5.12873791e-02 -8.63089636e-02 -1.33487821e-01 -1.28812745e-01 -1.18336715e-01  1.27333686e-01 -1.24544844e-01  9.92332995e-02 -5.11241667e-02  8.53728876e-02
 -1.35949120e-01  1.48306608e-01  3.09911463e-02 -7.95317665e-02 -5.89836612e-02 -1.27513900e-01 -1.19659036e-01 -5.14851883e-02  4.75644246e-02 -3.00540984e-01 -3.09284478e-01  4.20247279e-02
 -1.20928831e-01 -3.08069550e-02  4.30789255e-02 -5.07957675e-02  6.50697201e-02 -1.32763665e-02 -5.65406457e-02 -2.16274023e-01 -1.85736716e-01  1.97687335e-02  5.44550046e-02 -1.02098443e-01
  7.08229542e-02  1.06429331e-01 -3.90795097e-02 -1.49072051e-01  1.00250430e-02 -4.58087120e-03  1.01264790e-01 -1.15200147e-01  6.28161952e-02 -1.72787141e-02 -2.81143915e-02 -2.61766557e-02
  2.48368699e-02 -1.56131992e-03  1.85542226e-01  3.18767987e-02 -4.99252118e-02  2.14324277e-02  6.62365258e-02 -3.40951420e-02 -5.98343424e-02 -1.70947879e-03  1.24682800e-03 -8.94896984e-02
  3.83708291e-02 -7.48420805e-02 -2.02060840e-03 -9.67715383e-02  2.59646820e-03 -1.78176649e-02  2.36605667e-02  5.09820059e-02 -5.10136001e-02  1.47980258e-01  4.12161164e-02 -1.53835401e-01
 -1.46187425e-01 -2.63578687e-02  4.66073602e-02  9.25728679e-02 -1.27970755e-01  8.68367553e-02 -1.71899036e-01 -7.23538399e-02  1.07936561e-01  5.21763861e-02  2.46953834e-02 -7.10451677e-02
 -1.83173940e-01 -1.44752622e-01 -1.18472256e-01 -4.83737886e-03 -3.65715362e-02 -8.35534930e-03  1.35237977e-01 -5.12495227e-02 -9.93892923e-02 -1.05540015e-01 -5.31434529e-02  1.15998536e-01
 -5.80806062e-02  1.02533981e-01 -2.53960997e-01 -3.27824312e-03  1.06194049e-01  1.40626907e-01 -1.22978732e-01  3.11032198e-02 -1.07407779e-01  1.53416693e-01 -7.76100382e-02 -6.55999854e-02
 -1.63807645e-01 -4.95954938e-02  2.06121262e-02  6.13637604e-02 -5.83038777e-02 -5.21604307e-02 -1.01965591e-01  1.95732266e-02 -1.24981731e-01  5.52406311e-02 -3.96002866e-02 -4.66308236e-04
 -8.12677145e-02  7.29348361e-02  1.96484789e-01 -1.21936008e-01 -1.33968532e-01  7.74554834e-02 -1.53124675e-01  9.45530608e-02 -9.11308751e-02  2.03382492e-01  1.54965624e-01 -1.19709358e-01
 -1.98404901e-04  4.26627211e-02  3.99347022e-02  8.90153721e-02 -1.81269690e-01  2.89786067e-02 -4.03666869e-02  2.73172259e-02  3.20571102e-02 -1.43042058e-01  1.54352253e-02  1.59666687e-02
 -9.72361304e-03 -1.34285197e-01 -2.01811194e-02 -3.18195261e-02
