0.1302457  -0.08984511  0.16799763  0.11568153  0.12167599  0.04215593 -0.19115186  0.16814554  0.27025473 -0.34131798  0.25046706  0.03031119 -0.01656494  0.3949961   0.01239769  0.10523769
  0.1840931   0.26483896  0.0834676   0.15104781  0.04511742 -0.1681334   0.21331546  0.16493835 -0.44390664 -0.21271805 -0.14604273  0.2272997   0.04965952  0.21527676 -0.00303291  0.26969147
  0.38968673  0.13664733  0.01971607 -0.1583231   0.21483642 -0.18268691 -0.13926606  0.38338947  0.1233892  -0.06622982  0.16464426  0.12782636 -0.22457981  0.00317326  0.1134054  -0.18356164
 -0.0190538   0.08418529  0.02606626  0.22111617  0.18722056  0.32962087  0.1268328   0.16931047 -0.03457915  0.22980385  0.16079381 -0.01642269  0.39889544  0.20586939  0.0308565   0.26612407
  0.11836426 -0.17155987 -0.0014502   0.05567725  0.17466481  0.0823447   0.20854002  0.34263256  0.13712524  0.01612505  0.12029119 -0.10067745 -0.03982078  0.13730887 -0.1014771   0.13392001
 -0.10263339 -0.04326587 -0.12247393 -0.07343329  0.06457612  0.00436917  0.44187447  0.31924558  0.19007887 -0.04184365  0.04706123  0.20643279  0.07330804  0.02152948  0.1296671   0.06895164
 -0.00657381  0.17215697 -0.01382241 -0.02848234  0.39246896  0.1881275   0.3234461  -0.04076442 -0.06639724  0.04200369 -0.11839426  0.0236284   0.28256127 -0.11788908 -0.00086313 -0.09785488
  0.10657091 -0.01782355  0.00183021 -0.0062745   0.08168527  0.06367022  0.13507484  0.01349224  0.14559308 -0.28466976  0.2577572   0.08625467  0.26648122 -0.10165118  0.2692903   0.2587798 
